<?xml version="1.0"?>
<opencv_storage>
<stage9>
  <maxWeakCount>48</maxWeakCount>
  <stageThreshold>-6.8169057369232178e-01</stageThreshold>
  <weakClassifiers>
    <_>
      <internalNodes>
        0 -1 14336 4.9427999183535576e-03</internalNodes>
      <leafValues>
        1.9930875301361084e-01 6.8373495340347290e-01</leafValues></_>
    <_>
      <internalNodes>
        0 -1 6081 1.1356715112924576e-02</internalNodes>
      <leafValues>
        -7.8208096325397491e-02 4.9395966529846191e-01</leafValues></_>
    <_>
      <internalNodes>
        0 -1 74314 1.2193493545055389e-02</internalNodes>
      <leafValues>
        -1.5188816189765930e-01 2.6900905370712280e-01</leafValues></_>
    <_>
      <internalNodes>
        0 -1 46300 3.4238517284393311e-02</internalNodes>
      <leafValues>
        -9.7871355712413788e-02 3.4164312481880188e-01</leafValues></_>
    <_>
      <internalNodes>
        0 -1 69295 -1.6381558030843735e-02</internalNodes>
      <leafValues>
        7.3843640089035034e-01 -4.8134867101907730e-02</leafValues></_>
    <_>
      <internalNodes>
        0 -1 71728 -1.8945969641208649e-02</internalNodes>
      <leafValues>
        3.4087741374969482e-01 -1.0660035163164139e-01</leafValues></_>
    <_>
      <internalNodes>
        0 -1 77654 4.3557253666222095e-03</internalNodes>
      <leafValues>
        3.2388836145401001e-02 -7.3100620508193970e-01</leafValues></_>
    <_>
      <internalNodes>
        0 -1 71661 -5.5963532067835331e-03</internalNodes>
      <leafValues>
        1.6754178702831268e-01 -1.8749886751174927e-01</leafValues></_>
    <_>
      <internalNodes>
        0 -1 39666 -1.3065986335277557e-02</internalNodes>
      <leafValues>
        1.6083997488021851e-01 -1.7925803363323212e-01</leafValues></_>
    <_>
      <internalNodes>
        0 -1 18331 3.5071618854999542e-02</internalNodes>
      <leafValues>
        -4.7071579843759537e-02 7.3225510120391846e-01</leafValues></_>
    <_>
      <internalNodes>
        0 -1 33936 -2.8243961278349161e-03</internalNodes>
      <leafValues>
        4.5019209384918213e-01 -6.0038611292839050e-02</leafValues></_>
    <_>
      <internalNodes>
        0 -1 21348 1.3503214344382286e-02</internalNodes>
      <leafValues>
        -1.3164189457893372e-01 2.8970476984977722e-01</leafValues></_>
    <_>
      <internalNodes>
        0 -1 21344 -2.4522719904780388e-03</internalNodes>
      <leafValues>
        2.4340301752090454e-01 -1.3440904021263123e-01</leafValues></_>
    <_>
      <internalNodes>
        0 -1 29762 2.1670772694051266e-03</internalNodes>
      <leafValues>
        -1.1706547439098358e-01 2.6858666539192200e-01</leafValues></_>
    <_>
      <internalNodes>
        0 -1 27034 -6.9232578389346600e-03</internalNodes>
      <leafValues>
        -8.5989099740982056e-01 3.8706596940755844e-02</leafValues></_>
    <_>
      <internalNodes>
        0 -1 71991 -1.3328177854418755e-02</internalNodes>
      <leafValues>
        -5.5723583698272705e-01 5.1461800932884216e-02</leafValues></_>
    <_>
      <internalNodes>
        0 -1 52700 1.6284128651022911e-02</internalNodes>
      <leafValues>
        4.7349769622087479e-02 -6.1065506935119629e-01</leafValues></_>
    <_>
      <internalNodes>
        0 -1 66804 6.3471780158579350e-03</internalNodes>
      <leafValues>
        4.1462767869234085e-02 -6.2108635902404785e-01</leafValues></_>
    <_>
      <internalNodes>
        0 -1 78069 1.3478646287694573e-03</internalNodes>
      <leafValues>
        9.4792693853378296e-02 -2.8915268182754517e-01</leafValues></_>
    <_>
      <internalNodes>
        0 -1 77128 4.3568764813244343e-03</internalNodes>
      <leafValues>
        -1.5213946998119354e-01 1.8471205234527588e-01</leafValues></_>
    <_>
      <internalNodes>
        0 -1 66165 -1.6562189906835556e-02</internalNodes>
      <leafValues>
        2.8895762562751770e-01 -9.8294198513031006e-02</leafValues></_>
    <_>
      <internalNodes>
        0 -1 66212 3.3663883805274963e-02</internalNodes>
      <leafValues>
        -8.3468578755855560e-02 3.4790259599685669e-01</leafValues></_>
    <_>
      <internalNodes>
        0 -1 8318 -8.4872846491634846e-04</internalNodes>
      <leafValues>
        -2.9800418019294739e-01 9.9566556513309479e-02</leafValues></_>
    <_>
      <internalNodes>
        0 -1 23006 -1.3551432639360428e-02</internalNodes>
      <leafValues>
        5.1123315095901489e-01 -5.5799029767513275e-02</leafValues></_>
    <_>
      <internalNodes>
        0 -1 57396 -3.0946405604481697e-03</internalNodes>
      <leafValues>
        2.9211404919624329e-01 -9.5846511423587799e-02</leafValues></_>
    <_>
      <internalNodes>
        0 -1 57785 1.3774593826383352e-03</internalNodes>
      <leafValues>
        -1.1491052061319351e-01 2.6542469859123230e-01</leafValues></_>
    <_>
      <internalNodes>
        0 -1 22130 9.6632437780499458e-03</internalNodes>
      <leafValues>
        -9.7986012697219849e-02 3.1167826056480408e-01</leafValues></_>
    <_>
      <internalNodes>
        0 -1 45164 -9.6596302464604378e-03</internalNodes>
      <leafValues>
        -4.5995077490806580e-01 6.6137209534645081e-02</leafValues></_>
    <_>
      <internalNodes>
        0 -1 39054 5.8286182582378387e-02</internalNodes>
      <leafValues>
        -4.9273911863565445e-02 5.7958167791366577e-01</leafValues></_>
    <_>
      <internalNodes>
        0 -1 34392 -3.4186928533017635e-03</internalNodes>
      <leafValues>
        2.2420056164264679e-01 -1.1342266947031021e-01</leafValues></_>
    <_>
      <internalNodes>
        0 -1 57239 8.6855869740247726e-03</internalNodes>
      <leafValues>
        6.1534564942121506e-02 -4.6360382437705994e-01</leafValues></_>
    <_>
      <internalNodes>
        0 -1 53607 -5.2172355353832245e-02</internalNodes>
      <leafValues>
        3.7664321064949036e-01 -7.2578966617584229e-02</leafValues></_>
    <_>
      <internalNodes>
        0 -1 78273 5.8525027707219124e-03</internalNodes>
      <leafValues>
        5.0842717289924622e-02 -6.3481593132019043e-01</leafValues></_>
    <_>
      <internalNodes>
        0 -1 6719 -9.2089977115392685e-03</internalNodes>
      <leafValues>
        -5.0743597745895386e-01 5.7440638542175293e-02</leafValues></_>
    <_>
      <internalNodes>
        0 -1 75072 2.5944435037672520e-03</internalNodes>
      <leafValues>
        -7.7991038560867310e-02 4.3053323030471802e-01</leafValues></_>
    <_>
      <internalNodes>
        0 -1 78285 5.0069889985024929e-03</internalNodes>
      <leafValues>
        4.8447746783494949e-02 -6.2161356210708618e-01</leafValues></_>
    <_>
      <internalNodes>
        0 -1 75106 2.3217573761940002e-03</internalNodes>
      <leafValues>
        -7.6806254684925079e-02 4.0251880884170532e-01</leafValues></_>
    <_>
      <internalNodes>
        0 -1 18795 -7.8732520341873169e-03</internalNodes>
      <leafValues>
        4.4527286291122437e-01 -6.1441183090209961e-02</leafValues></_>
    <_>
      <internalNodes>
        0 -1 49886 -3.6891507916152477e-03</internalNodes>
      <leafValues>
        2.2161078453063965e-01 -1.3678415119647980e-01</leafValues></_>
    <_>
      <internalNodes>
        0 -1 39834 -5.1716551184654236e-02</internalNodes>
      <leafValues>
        -4.5757597684860229e-01 6.5137498080730438e-02</leafValues></_>
    <_>
      <internalNodes>
        0 -1 73305 -1.0726518929004669e-02</internalNodes>
      <leafValues>
        -3.9186975359916687e-01 7.2403043508529663e-02</leafValues></_>
    <_>
      <internalNodes>
        0 -1 67959 -6.2491151038557291e-04</internalNodes>
      <leafValues>
        2.2407023608684540e-01 -1.2884901463985443e-01</leafValues></_>
    <_>
      <internalNodes>
        0 -1 49524 -2.3771226406097412e-03</internalNodes>
      <leafValues>
        -4.2428246140480042e-01 7.3952369391918182e-02</leafValues></_>
    <_>
      <internalNodes>
        0 -1 39864 -6.3027944415807724e-03</internalNodes>
      <leafValues>
        -5.6370466947555542e-01 4.7721438109874725e-02</leafValues></_>
    <_>
      <internalNodes>
        0 -1 21506 3.9480984210968018e-02</internalNodes>
      <leafValues>
        -9.5527581870555878e-02 3.2369321584701538e-01</leafValues></_>
    <_>
      <internalNodes>
        0 -1 33807 -2.2884239442646503e-03</internalNodes>
      <leafValues>
        4.0201672911643982e-01 -7.9753942787647247e-02</leafValues></_>
    <_>
      <internalNodes>
        0 -1 3397 2.8411705046892166e-02</internalNodes>
      <leafValues>
        -9.1915436089038849e-02 3.3331021666526794e-01</leafValues></_>
    <_>
      <internalNodes>
        0 -1 32120 1.4342587441205978e-02</internalNodes>
      <leafValues>
        5.7140972465276718e-02 -6.2733882665634155e-01</leafValues></_></weakClassifiers></stage9>
</opencv_storage>
