<?xml version="1.0"?>
<opencv_storage>
<stage6>
  <maxWeakCount>53</maxWeakCount>
  <stageThreshold>-7.4796515703201294e-01</stageThreshold>
  <weakClassifiers>
    <_>
      <internalNodes>
        0 -1 13647 1.7574630677700043e-02</internalNodes>
      <leafValues>
        2.1137757599353790e-01 6.9357496500015259e-01</leafValues></_>
    <_>
      <internalNodes>
        0 -1 73442 9.9394209682941437e-03</internalNodes>
      <leafValues>
        -6.0025822371244431e-02 4.9279236793518066e-01</leafValues></_>
    <_>
      <internalNodes>
        0 -1 3363 1.1788886040449142e-02</internalNodes>
      <leafValues>
        -1.4762662351131439e-01 2.7642571926116943e-01</leafValues></_>
    <_>
      <internalNodes>
        0 -1 14714 2.7715466916561127e-02</internalNodes>
      <leafValues>
        -1.1092288792133331e-01 4.6530404686927795e-01</leafValues></_>
    <_>
      <internalNodes>
        0 -1 17939 -2.8524540364742279e-02</internalNodes>
      <leafValues>
        3.0357819795608521e-01 -1.5349996089935303e-01</leafValues></_>
    <_>
      <internalNodes>
        0 -1 30355 1.3680648989975452e-03</internalNodes>
      <leafValues>
        -1.5500552952289581e-01 2.4446333944797516e-01</leafValues></_>
    <_>
      <internalNodes>
        0 -1 23126 1.0894933715462685e-02</internalNodes>
      <leafValues>
        -1.1420210450887680e-01 2.5038227438926697e-01</leafValues></_>
    <_>
      <internalNodes>
        0 -1 45908 1.0942408815026283e-02</internalNodes>
      <leafValues>
        -8.4158137440681458e-02 3.6695760488510132e-01</leafValues></_>
    <_>
      <internalNodes>
        0 -1 57165 3.9057293906807899e-03</internalNodes>
      <leafValues>
        -9.7356729209423065e-02 3.0435773730278015e-01</leafValues></_>
    <_>
      <internalNodes>
        0 -1 49850 1.0196081362664700e-02</internalNodes>
      <leafValues>
        -1.2420788407325745e-01 2.3648197948932648e-01</leafValues></_>
    <_>
      <internalNodes>
        0 -1 63162 -1.0357611812651157e-02</internalNodes>
      <leafValues>
        2.5335446000099182e-01 -1.2295999377965927e-01</leafValues></_>
    <_>
      <internalNodes>
        0 -1 27936 -1.0344201698899269e-02</internalNodes>
      <leafValues>
        2.3059599101543427e-01 -1.3401012122631073e-01</leafValues></_>
    <_>
      <internalNodes>
        0 -1 45065 -2.8866825625300407e-02</internalNodes>
      <leafValues>
        3.9516431093215942e-01 -9.2733599245548248e-02</leafValues></_>
    <_>
      <internalNodes>
        0 -1 77218 -2.9768075793981552e-02</internalNodes>
      <leafValues>
        3.3275398612022400e-01 -8.7728165090084076e-02</leafValues></_>
    <_>
      <internalNodes>
        0 -1 53600 -9.8960874602198601e-03</internalNodes>
      <leafValues>
        -4.9408945441246033e-01 7.6469950377941132e-02</leafValues></_>
    <_>
      <internalNodes>
        0 -1 74814 8.2824975252151489e-03</internalNodes>
      <leafValues>
        -1.1793602257966995e-01 2.6229560375213623e-01</leafValues></_>
    <_>
      <internalNodes>
        0 -1 64770 1.6634665429592133e-02</internalNodes>
      <leafValues>
        5.6904137134552002e-02 -6.6532164812088013e-01</leafValues></_>
    <_>
      <internalNodes>
        0 -1 55071 -2.6196877006441355e-03</internalNodes>
      <leafValues>
        2.5280278921127319e-01 -1.1570931226015091e-01</leafValues></_>
    <_>
      <internalNodes>
        0 -1 61107 -1.0608699172735214e-02</internalNodes>
      <leafValues>
        -5.7526779174804688e-01 5.9797640889883041e-02</leafValues></_>
    <_>
      <internalNodes>
        0 -1 70537 -7.9876398667693138e-03</internalNodes>
      <leafValues>
        3.0875381827354431e-01 -1.0183073580265045e-01</leafValues></_>
    <_>
      <internalNodes>
        0 -1 66674 -6.4115510322153568e-03</internalNodes>
      <leafValues>
        3.6770871281623840e-01 -7.7774286270141602e-02</leafValues></_>
    <_>
      <internalNodes>
        0 -1 73835 2.2473743592854589e-04</internalNodes>
      <leafValues>
        -1.6113419830799103e-01 1.9955421984195709e-01</leafValues></_>
    <_>
      <internalNodes>
        0 -1 66367 1.8433351069688797e-02</internalNodes>
      <leafValues>
        -6.1687730252742767e-02 5.1596832275390625e-01</leafValues></_>
    <_>
      <internalNodes>
        0 -1 38357 1.3141783885657787e-02</internalNodes>
      <leafValues>
        5.9676963835954666e-02 -5.8168536424636841e-01</leafValues></_>
    <_>
      <internalNodes>
        0 -1 69031 -4.9052651971578598e-02</internalNodes>
      <leafValues>
        -6.8453979492187500e-01 4.0303658694028854e-02</leafValues></_>
    <_>
      <internalNodes>
        0 -1 50543 1.9258051179349422e-03</internalNodes>
      <leafValues>
        -1.0527028143405914e-01 2.6619812846183777e-01</leafValues></_>
    <_>
      <internalNodes>
        0 -1 54704 2.3190923035144806e-02</internalNodes>
      <leafValues>
        5.4742794483900070e-02 -5.7572793960571289e-01</leafValues></_>
    <_>
      <internalNodes>
        0 -1 57875 1.1405316181480885e-02</internalNodes>
      <leafValues>
        -9.4243966042995453e-02 3.0693575739860535e-01</leafValues></_>
    <_>
      <internalNodes>
        0 -1 46842 -2.1797722578048706e-01</internalNodes>
      <leafValues>
        5.1086461544036865e-01 -5.6620743125677109e-02</leafValues></_>
    <_>
      <internalNodes>
        0 -1 67813 1.7963581485673785e-03</internalNodes>
      <leafValues>
        -1.2470479309558868e-01 2.4008420109748840e-01</leafValues></_>
    <_>
      <internalNodes>
        0 -1 61078 1.9057534635066986e-02</internalNodes>
      <leafValues>
        6.4612783491611481e-02 -5.1616126298904419e-01</leafValues></_>
    <_>
      <internalNodes>
        0 -1 13313 2.8375876136124134e-03</internalNodes>
      <leafValues>
        -1.0503951460123062e-01 2.8486916422843933e-01</leafValues></_>
    <_>
      <internalNodes>
        0 -1 18786 -1.7811220604926348e-03</internalNodes>
      <leafValues>
        2.8009143471717834e-01 -1.0046700388193130e-01</leafValues></_>
    <_>
      <internalNodes>
        0 -1 56973 -2.7407666668295860e-02</internalNodes>
      <leafValues>
        -5.3766071796417236e-01 6.0620710253715515e-02</leafValues></_>
    <_>
      <internalNodes>
        0 -1 76650 4.5464998111128807e-03</internalNodes>
      <leafValues>
        4.6003777533769608e-02 -5.6075364351272583e-01</leafValues></_>
    <_>
      <internalNodes>
        0 -1 24014 -1.6704468289390206e-03</internalNodes>
      <leafValues>
        2.2138702869415283e-01 -1.4172983169555664e-01</leafValues></_>
    <_>
      <internalNodes>
        0 -1 21478 2.2226411849260330e-02</internalNodes>
      <leafValues>
        -4.8403218388557434e-02 6.1746549606323242e-01</leafValues></_>
    <_>
      <internalNodes>
        0 -1 19226 2.7239460498094559e-02</internalNodes>
      <leafValues>
        -3.9254218339920044e-02 7.0624727010726929e-01</leafValues></_>
    <_>
      <internalNodes>
        0 -1 7473 2.3124668747186661e-02</internalNodes>
      <leafValues>
        -7.2087787091732025e-02 3.7147074937820435e-01</leafValues></_>
    <_>
      <internalNodes>
        0 -1 57394 -1.2379360850900412e-03</internalNodes>
      <leafValues>
        2.4609693884849548e-01 -1.1963952332735062e-01</leafValues></_>
    <_>
      <internalNodes>
        0 -1 14486 6.4442288130521774e-03</internalNodes>
      <leafValues>
        7.4184216558933258e-02 -4.0658810734748840e-01</leafValues></_>
    <_>
      <internalNodes>
        0 -1 34076 2.4264859966933727e-03</internalNodes>
      <leafValues>
        -1.2972706556320190e-01 2.3145903646945953e-01</leafValues></_>
    <_>
      <internalNodes>
        0 -1 48169 2.2898046299815178e-02</internalNodes>
      <leafValues>
        7.0877373218536377e-02 -3.9121162891387939e-01</leafValues></_>
    <_>
      <internalNodes>
        0 -1 58449 -3.9466861635446548e-03</internalNodes>
      <leafValues>
        1.9707560539245605e-01 -1.4256887137889862e-01</leafValues></_>
    <_>
      <internalNodes>
        0 -1 57408 1.9683567807078362e-03</internalNodes>
      <leafValues>
        -1.2725764513015747e-01 2.2650787234306335e-01</leafValues></_>
    <_>
      <internalNodes>
        0 -1 55371 7.7413243707269430e-04</internalNodes>
      <leafValues>
        -1.2474056333303452e-01 2.3854489624500275e-01</leafValues></_>
    <_>
      <internalNodes>
        0 -1 39743 -1.8086563795804977e-03</internalNodes>
      <leafValues>
        2.4690115451812744e-01 -1.2041331827640533e-01</leafValues></_>
    <_>
      <internalNodes>
        0 -1 62369 1.1539275292307138e-03</internalNodes>
      <leafValues>
        1.0769028961658478e-01 -2.9197871685028076e-01</leafValues></_>
    <_>
      <internalNodes>
        0 -1 71060 5.6526069529354572e-03</internalNodes>
      <leafValues>
        -7.1009844541549683e-02 4.3083676695823669e-01</leafValues></_>
    <_>
      <internalNodes>
        0 -1 45617 -6.7732688039541245e-03</internalNodes>
      <leafValues>
        -7.4255335330963135e-01 4.1051827371120453e-02</leafValues></_>
    <_>
      <internalNodes>
        0 -1 50910 -4.9324277788400650e-03</internalNodes>
      <leafValues>
        2.4805347621440887e-01 -1.2232854962348938e-01</leafValues></_>
    <_>
      <internalNodes>
        0 -1 10737 3.9349258877336979e-03</internalNodes>
      <leafValues>
        5.5060055106878281e-02 -5.3807878494262695e-01</leafValues></_>
    <_>
      <internalNodes>
        0 -1 46061 4.3625910766422749e-03</internalNodes>
      <leafValues>
        7.5129546225070953e-02 -3.7340578436851501e-01</leafValues></_></weakClassifiers></stage6>
</opencv_storage>
